digraph Tree {
node [shape=box, style="filled, rounded", color="black", fontname="helvetica"] ;
edge [fontname="helvetica"] ;
0 [label="petal width (cm) <= 0.7\ngini = 0.66\nsamples = 96\nvalue = [50, 44, 56]\nclass = virginica", fillcolor="#f7f3fd"] ;
1 [label="gini = 0.0\nsamples = 31\nvalue = [50, 0, 0]\nclass = setosa", fillcolor="#e58139"] ;
0 -> 1 [labeldistance=2.5, labelangle=45, headlabel="True"] ;
2 [label="petal width (cm) <= 1.75\ngini = 0.49\nsamples = 65\nvalue = [0, 44, 56]\nclass = virginica", fillcolor="#e4d5f9"] ;
0 -> 2 [labeldistance=2.5, labelangle=-45, headlabel="False"] ;
3 [label="petal length (cm) <= 5.05\ngini = 0.24\nsamples = 35\nvalue = [0, 43, 7]\nclass = versicolor", fillcolor="#59e996"] ;
2 -> 3 ;
4 [label="gini = 0.0\nsamples = 31\nvalue = [0, 41, 0]\nclass = versicolor", fillcolor="#39e581"] ;
3 -> 4 ;
5 [label="sepal length (cm) <= 6.05\ngini = 0.35\nsamples = 4\nvalue = [0, 2, 7]\nclass = virginica", fillcolor="#a572ec"] ;
3 -> 5 ;
6 [label="gini = 0.0\nsamples = 1\nvalue = [0, 2, 0]\nclass = versicolor", fillcolor="#39e581"] ;
5 -> 6 ;
7 [label="gini = 0.0\nsamples = 3\nvalue = [0, 0, 7]\nclass = virginica", fillcolor="#8139e5"] ;
5 -> 7 ;
8 [label="petal width (cm) <= 1.85\ngini = 0.04\nsamples = 30\nvalue = [0, 1, 49]\nclass = virginica", fillcolor="#843de6"] ;
2 -> 8 ;
9 [label="sepal width (cm) <= 3.1\ngini = 0.2\nsamples = 6\nvalue = [0, 1, 8]\nclass = virginica", fillcolor="#9152e8"] ;
8 -> 9 ;
10 [label="gini = 0.0\nsamples = 4\nvalue = [0, 0, 7]\nclass = virginica", fillcolor="#8139e5"] ;
9 -> 10 ;
11 [label="petal length (cm) <= 5.4\ngini = 0.5\nsamples = 2\nvalue = [0, 1, 1]\nclass = versicolor", fillcolor="#ffffff"] ;
9 -> 11 ;
12 [label="gini = 0.0\nsamples = 1\nvalue = [0, 1, 0]\nclass = versicolor", fillcolor="#39e581"] ;
11 -> 12 ;
13 [label="gini = 0.0\nsamples = 1\nvalue = [0, 0, 1]\nclass = virginica", fillcolor="#8139e5"] ;
11 -> 13 ;
14 [label="gini = 0.0\nsamples = 24\nvalue = [0, 0, 41]\nclass = virginica", fillcolor="#8139e5"] ;
8 -> 14 ;
}